[array([[ -1.60203110e-02,  -2.03116494e-03,   2.46180454e-03,
          1.88328382e-02,   1.61266606e-02,   1.91601329e-02,
         -2.25487128e-02,  -1.69245787e-02,  -1.44961979e-02,
          2.28678761e-03,  -7.64854113e-03,   9.55635402e-03,
         -2.61360351e-02,  -1.48640266e-02,   1.78491604e-02,
          2.31512636e-02],
       [ -2.31203120e-02,  -6.00801129e-03,   3.18199508e-02,
         -4.81583774e-02,   1.20492661e-02,   5.31640686e-02,
         -1.81137305e-02,  -3.22785764e-03,   4.27381210e-02,
         -3.70360650e-02,  -1.59584638e-02,   4.46607657e-02,
          1.92204472e-02,  -5.03281783e-03,  -2.27666218e-02,
         -1.79107231e-03],
       [  1.19126905e-02,  -7.76877580e-03,  -2.79832119e-03,
          3.44860069e-02,   3.59448567e-02,  -7.70290848e-03,
          8.28039460e-03,  -2.06738710e-02,  -6.96915202e-03,
         -2.85616028e-03,  -7.07896426e-03,  -7.22626457e-03,
          7.58236274e-03,   8.20026034e-04,   3.30304611e-03,
          1.48935756e-02],
       [ -4.43231016e-02,   7.00896326e-03,   5.79890655e-03,
         -9.91138890e-02,  -7.53129423e-02,  -2.40533501e-02,
         -1.27794027e-01,   6.78726882e-02,  -8.77213255e-02,
         -3.28569650e-03,   4.79804054e-02,  -1.14873581e-01,
         -4.34722118e-02,   1.35522202e-01,   4.41862382e-02,
         -4.37451489e-02],
       [  7.75770424e-03,  -2.09360737e-02,   2.53538825e-02,
          2.74612047e-02,   4.08177339e-02,   7.33241148e-04,
          2.91633606e-02,  -3.37098911e-02,  -1.98324472e-02,
         -1.44854831e-02,   1.59044191e-02,   2.13785321e-02,
         -3.61303352e-02,  -7.70609546e-03,  -6.78320881e-04,
         -1.53120207e-02],
       [ -1.68816540e-02,  -1.49253756e-02,  -5.47782844e-03,
          2.96165552e-02,   2.38617528e-02,   1.52718695e-02,
          5.25563676e-03,   2.88717002e-02,   3.94307896e-02,
          2.45725326e-02,   2.57874583e-03,   5.01508117e-02,
         -4.39419486e-02,   3.98782492e-02,  -1.22119375e-02,
         -1.10826511e-02],
       [  3.57695930e-02,   2.30592135e-02,  -3.90517861e-02,
          6.44647377e-03,  -3.27378362e-02,  -1.13290492e-02,
          2.79211234e-02,  -5.42384898e-03,   7.22074881e-03,
          1.94864385e-02,   2.53347419e-02,   3.70130278e-02,
         -4.92158644e-02,  -1.84252504e-02,   5.41601470e-03,
         -5.34425788e-02],
       [ -2.46657562e-02,  -3.52208479e-03,   3.33498009e-02,
         -1.89220160e-02,  -1.17124520e-01,  -6.89542964e-02,
         -1.09535784e-01,   1.08507909e-02,  -7.22681060e-02,
         -1.44006899e-02,   2.78643109e-02,  -7.08432272e-02,
         -4.32804711e-02,   4.77173701e-02,   9.93516594e-02,
         -1.91189523e-04],
       [  5.18594310e-02,   7.96408392e-03,  -2.05357634e-02,
          1.55689679e-02,   1.71532463e-02,  -2.62823328e-02,
         -1.05997562e-04,   2.95802709e-02,   7.18068285e-03,
         -9.41273477e-03,  -9.04955901e-03,   9.22806282e-03,
         -3.35012637e-02,   4.35637217e-03,  -2.16158777e-02,
         -3.04497126e-03],
       [ -8.44326317e-02,  -4.92196769e-01,  -4.41204727e-01,
         -7.02972412e-02,   4.18015197e-02,  -1.18824802e-01,
         -2.77774602e-01,   6.26852587e-02,   2.82955170e-01,
         -4.72198933e-01,   1.29381835e-01,   2.50756264e-01,
          1.86645880e-01,   2.03147009e-02,   1.23146430e-01,
         -1.22690000e-01],
       [ -6.10717945e-02,   2.92869974e-02,   1.33450301e-02,
          7.74980057e-03,   2.08581015e-02,   6.67745993e-02,
          2.28244904e-02,   2.58648228e-02,  -2.48716790e-02,
         -4.16523628e-02,  -2.71770321e-02,   9.26802307e-03,
          3.47316004e-02,  -3.14148292e-02,   2.22954229e-02,
         -2.16017347e-02],
       [  2.65774671e-02,   2.67400639e-03,  -2.42661033e-02,
          1.48590088e-01,   1.04325376e-01,   7.36349076e-02,
          1.59258172e-01,  -1.66805670e-01,   5.70370741e-02,
          2.26790681e-02,  -6.89893365e-02,   1.54225618e-01,
          1.50719896e-01,  -1.29567266e-01,  -1.36374652e-01,
         -8.88573006e-03],
       [  1.89322652e-03,   9.16367210e-03,   9.67300776e-03,
         -7.17345998e-03,   2.14254912e-02,   4.43910714e-03,
          8.31583515e-03,   3.26048248e-02,   5.96092548e-03,
         -1.23204440e-02,  -4.39933036e-03,   1.37282573e-02,
         -6.05310639e-03,   6.95321593e-04,   4.93898988e-02,
          7.32965022e-03],
       [  2.38324985e-01,  -1.94181219e-01,   4.29726690e-01,
          3.10179174e-01,  -2.52835434e-02,   2.11338550e-01,
         -3.03647727e-01,   2.33960092e-01,   2.86914110e-01,
          7.67931938e-02,   2.63123214e-01,  -2.70843804e-01,
          6.36612847e-02,  -2.93717444e-01,  -8.85473713e-02,
         -3.27684373e-01],
       [  4.87961024e-02,   1.75532587e-02,   2.79364828e-03,
         -4.18937467e-02,   3.08440682e-02,   4.27662842e-02,
          2.92418189e-02,  -3.55594754e-02,   1.71345230e-02,
         -1.85198765e-02,   1.39999418e-02,   2.27945372e-02,
         -2.12813187e-02,  -1.21282181e-02,   1.66874155e-02,
         -2.44285241e-02],
       [  6.01706095e-02,   1.55433314e-03,  -2.03289278e-02,
          7.51778781e-02,   7.52338916e-02,   6.37443587e-02,
          1.49837568e-01,  -4.61283699e-02,   5.14867119e-02,
         -7.58803356e-03,  -6.74704239e-02,   1.35953635e-01,
          1.07273258e-01,  -1.31880149e-01,  -1.43096551e-01,
          6.73944876e-02],
       [ -1.24355592e-01,   2.72958130e-01,   2.25106366e-02,
         -3.33581865e-01,   4.44840729e-01,  -4.18547630e-01,
         -1.68229356e-01,  -8.96714348e-03,  -2.25908399e-01,
         -6.62212819e-02,   3.22111726e-01,  -8.26515704e-02,
          6.16590679e-02,  -4.20397669e-01,  -1.84438080e-01,
         -8.64769891e-02],
       [ -1.99479442e-02,   4.56209518e-02,  -2.07739212e-02,
         -3.46450284e-02,  -1.82043072e-02,   4.81086634e-02,
         -2.46463474e-02,   1.97091624e-02,  -3.46880816e-02,
          4.57863547e-02,  -1.52791915e-02,  -2.60632187e-02,
          4.54148315e-02,  -1.59855355e-02,   2.98905205e-02,
          1.50314602e-03],
       [  4.28082189e-03,  -1.58733800e-02,  -1.27651524e-02,
          5.84593154e-02,   8.89522769e-03,   4.24437113e-02,
          1.28298327e-01,  -1.03577584e-01,   5.22101484e-02,
         -2.55120732e-03,  -6.47791997e-02,   1.18642114e-01,
          8.96153525e-02,  -1.54374763e-01,  -1.54912889e-01,
          6.49317075e-03],
       [ -5.33305341e-04,  -1.15966043e-02,  -2.55183652e-02,
          1.35422096e-01,   1.41748145e-01,   6.34063259e-02,
          1.40442520e-01,  -9.73151550e-02,   8.63192305e-02,
          6.71219155e-02,  -8.37477446e-02,   1.45663083e-01,
          1.02232002e-01,  -1.43056676e-01,  -6.73156753e-02,
          3.17419544e-02],
       [ -3.51024508e-01,   2.60163575e-01,  -9.10930056e-03,
          1.91542357e-01,  -1.03529692e-01,   2.13639542e-01,
         -9.15994719e-02,  -3.78965624e-02,   2.32262060e-01,
         -1.32110387e-01,   5.17787933e-01,   1.18620336e-01,
         -2.93913484e-01,   1.46349534e-01,  -2.28307992e-01,
          3.96351278e-01],
       [ -3.25518921e-02,   1.09955352e-02,  -3.37182991e-02,
         -1.35857798e-02,   3.94976437e-02,   1.16562005e-02,
          2.49352213e-02,   2.51238681e-02,  -3.83053496e-02,
          4.09603268e-02,   1.39228376e-02,  -2.82181054e-02,
          6.61626365e-03,  -1.93384960e-02,   3.41964886e-02,
         -5.58318831e-02],
       [  3.72118782e-03,   2.57632844e-02,  -3.56834056e-03,
          1.88596621e-02,   3.47760320e-02,   6.66459128e-02,
          6.68353364e-02,  -3.95116322e-02,   2.66092382e-02,
          2.54803412e-02,   1.55818267e-02,   1.25774145e-01,
          8.41061100e-02,  -5.60561568e-02,  -5.02156839e-02,
         -2.43876837e-02],
       [  2.95141730e-02,  -1.87176140e-03,  -1.63980071e-02,
          7.48841390e-02,   6.57456890e-02,   2.63568442e-02,
          1.05087571e-01,  -6.76027611e-02,   7.36956075e-02,
          4.50194143e-02,  -6.61980510e-02,   1.44722968e-01,
          8.66064727e-02,  -1.42651960e-01,  -1.05000794e-01,
          7.33136833e-02]], dtype=float32), array([-0.00865017,  0.01539407, -0.00701151,  0.02157703,  0.0388801 ,
        0.01697195,  0.01935514, -0.02451965,  0.02627533, -0.00779216,
        0.01977145,  0.04933737,  0.02038693, -0.05488764, -0.04215096,
        0.01019947], dtype=float32), array([[  8.47720727e-02,  -9.04677883e-02,   2.03148559e-01,
         -5.31648546e-02,   1.72159836e-01,   1.41869545e-01,
          1.50019005e-01,  -9.12217889e-03,  -1.16418637e-01,
          1.76866174e-01,  -5.29172011e-02,   1.41829863e-01],
       [ -2.10530251e-01,  -1.20005690e-01,  -7.68054426e-02,
          3.20093274e-01,   3.23133804e-02,  -1.39585704e-01,
          2.84985565e-02,  -9.96362492e-02,   3.58658910e-01,
         -1.48707181e-01,   2.38967419e-01,   8.36520195e-02],
       [ -1.04790635e-01,  -8.67507905e-02,   2.07466409e-02,
          2.08510607e-01,   2.01586947e-01,   3.06836158e-01,
          1.46761686e-01,  -2.28065327e-01,   7.64113804e-03,
          1.62100315e-01,   2.25748658e-01,   1.69331670e-01],
       [  1.76166221e-01,   2.64743716e-01,   2.37145443e-02,
         -4.16968483e-03,   1.84040770e-01,   3.09215218e-01,
         -9.96911749e-02,  -5.19556701e-02,  -2.35283896e-02,
         -5.32171167e-02,   1.16312176e-01,   2.16842309e-01],
       [  5.02723977e-02,  -1.28536001e-01,  -1.00822106e-01,
          1.42922461e-01,   1.95541784e-01,  -3.34354490e-01,
         -8.50683972e-02,   8.65444764e-02,  -9.88890976e-03,
          1.94262221e-01,   4.66618733e-03,  -1.89232342e-02],
       [  1.74669713e-01,   2.23903507e-01,  -4.40344214e-04,
         -1.05003782e-01,   7.40750432e-02,   2.97100425e-01,
         -1.31707666e-02,  -1.38857082e-01,   3.59444693e-02,
         -1.64654583e-01,   1.38997421e-01,   2.04346493e-01],
       [  2.02671990e-01,  -1.79910362e-02,   2.32832462e-01,
          4.02545091e-03,   1.35248348e-01,  -1.39363155e-01,
          1.10295698e-01,   9.41569135e-02,   3.03363472e-01,
         -2.23482609e-01,   6.26370087e-02,   1.46813020e-01],
       [ -1.22174695e-01,  -2.95524765e-02,  -7.42812753e-02,
         -4.52083237e-02,   8.66598729e-03,   1.67540789e-01,
          7.43172690e-02,  -1.25717342e-01,  -1.79952070e-01,
          7.64681250e-02,  -7.02380091e-02,  -6.93607926e-02],
       [  1.88162655e-01,   3.09727609e-01,  -1.68539017e-01,
         -1.61754072e-01,   1.10983282e-01,   1.84363395e-01,
         -1.68445081e-01,  -1.72030833e-02,  -1.63745731e-01,
          3.97657882e-03,   2.88240351e-02,   3.62113081e-02],
       [  3.66912745e-02,  -1.54037267e-01,   1.77516952e-01,
          1.73962906e-01,   8.99893492e-02,   1.15524970e-01,
          1.90059185e-01,  -1.29654050e-01,   1.83701709e-01,
          1.67049561e-02,   1.26257926e-01,   2.19056636e-01],
       [ -2.69949704e-01,   1.96172714e-01,  -4.56649572e-01,
          1.11859865e-01,  -3.86734717e-02,   2.82455049e-02,
         -2.30293810e-01,  -1.17656812e-01,  -8.51064026e-02,
          1.22912787e-01,   1.69840723e-01,  -7.18486086e-02],
       [  2.40963444e-01,   1.57574564e-01,  -5.13202287e-02,
         -1.79086491e-01,   3.88187878e-02,  -2.18192220e-01,
         -2.06153944e-01,   2.06690103e-01,   1.13581583e-01,
         -1.61095589e-01,  -3.59967686e-02,   1.01681380e-02],
       [  2.45273188e-01,  -6.97164461e-02,   5.63306734e-02,
         -1.13406293e-01,   1.21940605e-01,  -1.34507760e-01,
         -3.49357314e-02,   9.90633965e-02,  -1.39295667e-01,
          1.85651064e-01,  -8.18966255e-02,   6.28408194e-02],
       [ -9.46708024e-02,   1.01291478e-01,   1.46697953e-01,
         -1.44712359e-01,  -3.29949379e-01,   1.84877470e-01,
          3.85319926e-02,  -1.04895450e-01,   1.30913913e-01,
         -3.50138485e-01,  -1.49768710e-01,  -1.46290332e-01],
       [ -4.63681407e-02,  -9.20295343e-02,   2.20454633e-01,
         -1.26890525e-01,  -2.21331403e-01,   8.60265642e-02,
          1.40040955e-02,  -4.35724407e-02,  -9.87834260e-02,
          3.55742685e-03,  -1.94534585e-01,  -1.10565156e-01],
       [ -7.53928944e-02,   1.61729231e-01,  -4.41703908e-02,
          5.51093556e-03,  -5.25335334e-02,  -1.20555475e-01,
         -1.10562235e-01,  -5.73911853e-02,   2.99069196e-01,
         -3.35202456e-01,   1.04678780e-01,  -2.19882317e-02]], dtype=float32), array([ 0.11777318,  0.0539086 , -0.09401957, -0.01257206,  0.13495736,
       -0.10335787, -0.08410493,  0.05084181,  0.01947169,  0.01394097,
        0.06115308,  0.05792635], dtype=float32), array([[-0.27350873,  0.16992082,  0.26067889,  0.33300897, -0.19036481,
         0.01683608,  0.22405335,  0.23993467],
       [-0.26589218,  0.25815079,  0.09607634,  0.11624523,  0.48735434,
         0.12668739,  0.04351962,  0.08734066],
       [-0.40684989, -0.25583261, -0.07166576,  0.05916413, -0.53372991,
        -0.23618402, -0.09891625, -0.02619603],
       [ 0.36063728, -0.41909155, -0.00972862,  0.01758019,  0.09731699,
         0.06517904, -0.04951961, -0.04731244],
       [ 0.14687258, -0.15520613,  0.23303033,  0.27324405, -0.0510593 ,
         0.32055441,  0.1734471 ,  0.30459443],
       [-0.53878868, -0.15917203, -0.14847289, -0.13855569,  0.05543284,
         0.52157277, -0.11479832, -0.1633316 ],
       [-0.11208785, -0.34874076, -0.05124894, -0.14528501, -0.36527503,
         0.0012179 , -0.12586294, -0.03647244],
       [ 0.10086306,  0.25989264,  0.17494121,  0.134993  , -0.13864037,
        -0.22288798,  0.09306385,  0.072377  ],
       [-0.04018774, -0.46207362,  0.02367517,  0.10961117,  0.21803848,
        -0.44870359,  0.04197808,  0.07823928],
       [ 0.40042838,  0.13261712, -0.00240798,  0.04010136, -0.32029566,
         0.48279989,  0.02180257, -0.03552512],
       [ 0.1240219 , -0.33537924,  0.13870074,  0.09747149,  0.30970347,
         0.1817625 ,  0.09445532,  0.04470268],
       [-0.13504846, -0.30962625,  0.17785478,  0.15895671, -0.0252579 ,
         0.21140021,  0.16322108,  0.13112386]], dtype=float32), array([ 0.14307369,  0.0935629 ,  0.66051179,  0.44012877,  0.17756771,
        0.09731384,  0.7855975 ,  0.45164248], dtype=float32)]